encog,BasicNetwork,java,3.2.0,1,1431045939436
[BASIC]
[BASIC:PARAMS]
[BASIC:NETWORK]
beginTraining=0
connectionLimit=0
contextTargetOffset=0,0,0
contextTargetSize=0,0,0
endTraining=2
hasContext=f
inputCount=9
layerCounts=4,6,10
layerFeedCounts=4,5,9
layerContextCount=0,0,0
layerIndex=0,4,10
output=0,0.9999998055,0.0000000021,0.0000000076,0.0000000029,0.0089145498,1,0.9198143289,1,1,1,0,0,0,0,0,1,0,1,1
outputCount=4
weightIndex=0,24,74
weights=9.9468731079,-1.3195023366,6.7834811641,-99.5244494681,1.5781743964,-0.702483909,-34.10246534,-0.5886236077,6.2850815537,8.5152481174,1.2009265411,0.1397662188,3.4433631395,3.4413367884,-12.1267873028,1.0478484877,-13.9568366985,5.1198034662,-4.2196831447,-6.2452978741,-4.1613854125,-4.0879977219,-5.2783225893,-5.4455585504,5.0123905136,0.09750162,-7.6976024828,0.6611881428,-7.5753684149,0.4204123741,-8.8197642572,0.2724904719,-20.4411617933,4.5741027753,5.8460716048,-0.2279194894,-4.6117920665,0.9231194919,-5.248269646,-0.4033499009,-4.6804169737,-0.4705146582,-9.4285283599,3.5517577243,-5.5068068185,0.5817140996,6.9072116072,-0.2482875276,6.9797853128,-0.9152722768,25.8237629576,-0.5104002663,19.4024436245,-5.6266178382,0.1215146201,0.7792991204,5.9118718786,-0.0948866217,6.4015268994,-0.8282348211,-11.4517483054,0.990366295,14.807532115,-1.037471431,-9.7579107211,-0.7167021138,7.2698881987,0.1581357199,7.3443676063,0.4847639085,36.3695490871,0.1307926087,30.2230160829,-9.4786548303
biasActivation=0,1,1
[BASIC:ACTIVATION]
"org.encog.engine.network.activation.ActivationSigmoid"
"org.encog.engine.network.activation.ActivationSigmoid"
"org.encog.engine.network.activation.ActivationLinear"
