encog,BasicNetwork,java,3.2.0,1,1432640958599
[BASIC]
[BASIC:PARAMS]
[BASIC:NETWORK]
beginTraining=0
connectionLimit=0
contextTargetOffset=0,0,0
contextTargetSize=0,0,0
endTraining=2
hasContext=f
inputCount=9
layerCounts=7,3,10
layerFeedCounts=7,2,9
layerContextCount=0,0,0
layerIndex=0,7,10
output=0.0000001648,0.9999998536,0.000000012,0.0000052064,0.0000000032,0.000000221,0.0000001289,0.999999995,0.8341380148,1,1,1,0,0,1,0,0,0,1,1
outputCount=7
weightIndex=0,21,41
weights=-15.0224759296,-0.7239035831,0.0076708471,15.7716081804,-0.1444378811,0.0861007751,-17.4901921317,-0.4126766035,-0.4010123323,-12.4397295089,0.347644953,-0.015870138,-18.3171503607,-1.5123213145,0.0235912345,-14.4917448744,-1.016418523,0.014542842,-15.3155071494,-0.667324078,0.0081264721,-0.1444312808,0.1001529672,-0.3241125448,-0.3045212942,7.2608506754,-0.7675187759,-15.0483399163,-0.4032038789,11.2201750256,0.6788301974,0.5911127394,0.2594384163,-0.1046470802,0.2240453995,0.4436154647,-0.1433443462,-5.1713671238,0.6611881428,0.1220635511,0.1990126743
biasActivation=0,1,1
[BASIC:ACTIVATION]
"org.encog.engine.network.activation.ActivationSigmoid"
"org.encog.engine.network.activation.ActivationSigmoid"
"org.encog.engine.network.activation.ActivationLinear"
