encog,BasicNetwork,java,3.2.0,1,1431046080537
[BASIC]
[BASIC:PARAMS]
[BASIC:NETWORK]
beginTraining=0
connectionLimit=0
contextTargetOffset=0,0,0
contextTargetSize=0,0,0
endTraining=2
hasContext=f
inputCount=9
layerCounts=8,3,10
layerFeedCounts=8,2,9
layerContextCount=0,0,0
layerIndex=0,8,11
output=0.500001227,0.4999330445,0.4998943325,0.5001744822,0.499996906,0.5001039156,0.4999433827,0.4997500438,0.3129947114,0.4636969,1,0,0,1,0,1,0,0,0,1,1
outputCount=8
weightIndex=0,24,44
weights=-0.0506175304,-0.2335676435,0.1241525194,-0.4454630075,0.7749718663,-0.2201923085,-0.3884690761,0.0377458537,0.1036634611,0.7939956779,-0.5514511796,0.0078876831,0.147261223,0.1764153709,-0.1279076207,0.2359144605,-1.0431906853,0.4102999709,-0.6888938553,-0.5249364606,0.4588050735,-1.2131114117,-0.0924862366,0.4215832126,-0.397244669,0.0260872012,-0.8188826394,-0.4252430602,0.4239272209,-0.7675187759,0.4256600522,-0.4032038789,0.0022901197,-0.3934903976,0.0715109177,-0.0243794648,0.4425460262,0.0957475184,-0.3716577075,-0.1433443462,0.4272455828,0.6611881428,-0.0007723326,-0.2155843665
biasActivation=0,1,1
[BASIC:ACTIVATION]
"org.encog.engine.network.activation.ActivationSigmoid"
"org.encog.engine.network.activation.ActivationSigmoid"
"org.encog.engine.network.activation.ActivationLinear"
