encog,BasicNetwork,java,3.2.0,1,1424042493462
[BASIC]
[BASIC:PARAMS]
[BASIC:NETWORK]
beginTraining=0
connectionLimit=0
contextTargetOffset=0,0,0
contextTargetSize=0,0,0
endTraining=2
hasContext=f
inputCount=3
layerCounts=6,10,4
layerFeedCounts=6,9,3
layerContextCount=0,0,0
layerIndex=0,6,16
output=0,0,0,0,0,0,0,0,0,0,0,0,0,0,0,1,0,0,0,1
outputCount=6
weightIndex=0,60,96
weights=0.6015584706,0.1723994691,0.9304364727,-0.818669147,-10.4519935628,-11.7538928942,7.6808000902,-6.7726646656,-0.1157672467,5.2896717222,-0.1896721459,7.8271447596,-0.8328163556,0.7837127062,-3.8697113567,1.3961862727,-2.7512989972,6.5421366204,-1.2648153847,-5.2394838374,-0.5274666687,7.4356905724,8.8380008252,-0.08562057,-5.2166720166,-5.4991198423,-0.6156297658,-8.6261631708,4.4543028398,1.9934832967,5.8817777571,10.1992506957,-4.725675921,2.3828030667,12.9901559476,4.9673980479,-0.9814449824,-2.5776112108,-3.2784945987,-7.2404825409,-2.6974784246,-4.4181176033,-0.8981594351,1.1412437591,-5.6425305732,6.8908988356,-2.9717457227,-5.54577288,-1.3714229453,-0.4017666111,3.5465365284,4.0271010233,-1.2315113898,0.8175512254,-3.9971361996,-8.2612366897,8.2900895331,-4.2716638032,0.1541684001,1.2884070814,3.6036468231,0.2436132259,2.3067643624,-8.219589824,37.312090668,-10.4886046704,-0.3100389668,-14.773063559,-0.689588615,13.785389658,-9.875509163,-2.5906874677,5.7714022548,-5.7717722723,-1.1454853259,-4.0528175007,11.974768169,4.9212811666,-3.9995497815,-3.0042159754,4.8902061938,-19.4405721314,7.6108076817,-11.2471494069,0.733490824,4.8065591621,-5.2398355602,-2.3443358121,-15.8892231271,11.5561066569,2.7112400518,-10.4489919343,-1.1559582299,7.275798143,-3.9125136735,-1.8104486398
biasActivation=0,1,1
[BASIC:ACTIVATION]
"org.encog.engine.network.activation.ActivationSigmoid"
"org.encog.engine.network.activation.ActivationSigmoid"
"org.encog.engine.network.activation.ActivationLinear"
