encog,BasicNetwork,java,3.2.0,1,1433964172251
[BASIC]
[BASIC:PARAMS]
[BASIC:NETWORK]
beginTraining=0
connectionLimit=0
contextTargetOffset=0,0,0
contextTargetSize=0,0,0
endTraining=2
hasContext=f
inputCount=9
layerCounts=8,9,10
layerFeedCounts=8,8,9
layerContextCount=0,0,0
layerIndex=0,8,17
output=0.4498383982,0.4834666476,0.5273971117,0.9584248179,0.2769454965,0.3442937314,0.4151955831,0.2926815186,0.2875100695,0.0650852546,0.2180044001,1,0.5714547678,0,0.0224928743,1,1,0,1,1,1,0,0,1,0,1,1
outputCount=8
weightIndex=0,72,152
weights=-0.1712183325,-4.34975853,0.5819582435,-0.5783999208,-0.0330455361,32.6493316208,0.3235760352,1.5255692653,-0.9314244456,0.6486035607,-3.5846311976,0.1133028101,-4.5164305579,0.4305719312,-7.6443314684,-0.1524769022,3.4483180794,0.7814582785,1.8105879592,-5.1867669588,3.4280052574,1.9532837944,0.6368664987,-24.6603386292,1.7723213274,-3.6736735074,0.4959825842,-6.2504290723,-4.5882125856,-0.9855112136,-1.9386279144,3.7424930013,2.3236657636,3.9375369946,5.4248759482,-0.2651602479,-0.5888620572,2.9184115447,-3.8678775811,-1.0403523072,-0.2371647102,2.7969329796,1.7124442189,1.8026295921,-0.8023575096,-0.2021276661,-0.8222089506,-1.472536261,-0.676065968,-0.1256339291,1.6804795164,1.1008299921,0.6834373239,-0.1719090404,0.7333520825,-1.3368156076,-1.8443489764,-2.0447576907,0.3332941185,1.6824850183,-0.2926814208,1.3922088887,0.4043788359,1.6497190034,0.9028551095,-3.4640663905,-1.7776907921,1.5298260685,3.5242699604,1.0886104892,-0.2018809364,0.4205717019,1.5464183105,1.0192384944,0.8552657911,-2.0207392959,-0.2995703233,-0.6038933149,-1.1461602986,-0.9624976939,-0.297383913,0.6822713268,0.7692099703,-3.2473410347,0.7124474311,-1.8037906298,-0.8586927717,0.5947978845,-1.3366805536,-0.5535614517,3.8088552953,-0.7982478324,-0.8009796701,-2.0688957225,0.609904048,-3.8650029215,-0.4031175062,0.8136436622,0.2571351874,0.8448571767,3.4484350176,0.3410905238,4.6056196307,7.3987716585,-5.2811017574,36.2582702623,0.2724904719,0.7865599212,-0.5411401134,-0.1051390132,-1.7383138378,-0.9664340024,-2.3877089898,-0.4652426146,-0.7254912063,3.0486551864,-0.4705146582,-0.3375394115,-0.811955676,-0.1088760339,0.0566278137,-0.8148044614,2.1423670634,1.0120913149,-32.6277642564,-5.2655736001,-0.5104002663,-0.5061172143,-2.9117284862,0.4983949395,3.7026382858,-2.9979056528,0.3750125715,-0.3585350124,0.2734115253,-1.554113057,0.990366295,0.0988758316,-0.2718239381,-0.6533904638,-2.5286020932,0.6678555544,1.7162164856,84.7863285434,83.1511332935,25.3064477053,0.1307926087,-0.7465762477,0.5839155436,0.1407092458,-56.0137249416,1.7121872167
biasActivation=0,1,1
[BASIC:ACTIVATION]
"org.encog.engine.network.activation.ActivationSigmoid"
"org.encog.engine.network.activation.ActivationSigmoid"
"org.encog.engine.network.activation.ActivationLinear"
