encog,BasicNetwork,java,3.2.0,1,1433963687051
[BASIC]
[BASIC:PARAMS]
[BASIC:NETWORK]
beginTraining=0
connectionLimit=0
contextTargetOffset=0,0,0
contextTargetSize=0,0,0
endTraining=2
hasContext=f
inputCount=13
layerCounts=2,11,14
layerFeedCounts=2,10,13
layerContextCount=0,0,0
layerIndex=0,2,13
output=0.8259317138,0.2683082061,0.7391017697,0.0178876387,0.1119387041,1,0.0506745574,0.1924094413,1,0.7509388818,0.5981012883,1,1,1,0,0,1,0,0,1,0,0,0,1,1,0,1
outputCount=2
weightIndex=0,22,162
weights=0.8528943963,-0.6512308546,-0.9143837971,0.8123874593,-1.3855756908,0.7051439824,-0.9661099781,2.2462240299,-1.787167219,-0.2814944589,0.792576697,0.6675551519,-1.7165604205,1.3098727474,-0.3589703914,-0.1194677637,0.9903314303,-0.743987468,-0.1193974899,-0.0082018023,-1.3132552694,0.7137492379,-0.4262859776,-0.1770064141,-0.7449517492,0.5882710146,-3.3616431529,0.3314024451,0.6689887424,-0.4287247065,4.044593747,-32.8097560844,-0.2115448965,-0.148532364,-0.7988442335,0.5704086964,1.910760117,-0.61308275,2.3894357117,-4.2959102483,-2.6730504966,0.0078679251,0.3990641979,0.3161530852,5.3490145314,-3.7945836542,-0.7199528469,-1.1000457165,3.5682295917,-0.1995113286,0.2509294121,34.1090338318,4.8650855972,4.4958772223,9.6914384163,-0.9604713428,-0.7523695878,0.8959689839,-0.6669308061,26.5238382006,0.6244255919,-6.7405883491,28.0024831162,0.0506363799,-0.1926777519,-0.1514778772,1.3694775386,3.9604012033,5.5163543797,0.8528796355,0.1361046009,0.246177872,-22.3944287022,-2.9922657996,-0.4080666688,21.2637361555,-2.0605353274,0.8201394529,-0.6231761106,-0.4356038315,-1.323666802,-1.8863014908,-6.0560732569,-0.5630758334,-0.3089639295,0.4153577814,2.3154839312,2.8678700387,-0.097393379,-0.8432095476,0.0333594799,0.8287167445,-0.0278811804,0.7503334198,1.3005849638,-2.561456677,-1.6116588085,-0.3453659879,1.8951370955,-0.4174259639,0.9958940697,-30.1327404759,-1.2960947647,0.2590594725,-1.7222160371,0.2968064665,-5.1453347013,1.9197177859,-1.4104474944,34.3741029267,34.6537549274,-0.9624976939,-0.420557159,-0.9633201281,-70.8671701137,107.2522118146,0.1097626369,7.1097607654,0.7898013362,0.065483163,0.8136084416,0.9672199934,-2.2508460939,-2.6122473455,-8.5526433036,-0.5535614517,2.6823662213,0.7667024689,-4.4007572789,6.9825662278,0.9946799893,-1.353350933,1.3503443712,0.5785695714,0.5756958879,-0.1523449871,0.9441741851,1.074492426,20.2394992769,0.8448571767,-0.4896534745,0.3766036591,-40.4562727308,-48.8411817912,-0.1279956252,-0.8551711819,1.0045364516,0.22019199,-0.4454947097,2.2346778453,2.1367727747,3.8085083795,-109.7479039899,-0.1051390132,-0.1133777131,0.7829056852,-53.4324306535,24.9273898586,-0.3777353871,75.7301282431,-5.3015223708,1.075517183
biasActivation=0,1,1
[BASIC:ACTIVATION]
"org.encog.engine.network.activation.ActivationSigmoid"
"org.encog.engine.network.activation.ActivationSigmoid"
"org.encog.engine.network.activation.ActivationLinear"
