encog,BasicNetwork,java,3.2.0,1,1432492138945
[BASIC]
[BASIC:PARAMS]
[BASIC:NETWORK]
beginTraining=0
connectionLimit=0
contextTargetOffset=0,0,0
contextTargetSize=0,0,0
endTraining=2
hasContext=f
inputCount=3
layerCounts=6,10,4
layerFeedCounts=6,9,3
layerContextCount=0,0,0
layerIndex=0,6,16
output=0,0,0,0,0,0,0,0,0,0,0,0,0,0,0,1,0,0,0,1
outputCount=6
weightIndex=0,60,96
weights=4.280356633,-3.0977289438,1.4205092745,-4.6646265193,-3.060602284,-3.0672861022,-6.2702671632,-2.9954639204,-1.4033924326,-4.3420378723,4.7485249726,-2.264214681,1.9203808788,-5.2291523611,-1.1152379941,-2.3910212313,7.9604926929,-1.2719026875,0.3023977542,-5.1065743849,9.2574280906,-3.1663577839,6.4831171031,-8.5290598697,-2.1512498512,-1.9770904198,-9.8688329065,-2.1631890799,2.137047452,-4.5924435523,-6.1152080825,1.4570326422,2.1731250714,-9.7397178119,-1.4321391129,-0.5249877514,-7.007543364,-2.6315188345,1.5765645255,5.6491637856,1.9400225984,-4.2916695551,2.194634295,12.4906868734,-2.0662549633,-3.2053348835,-8.7467628993,-1.6057647532,-0.2647287962,-2.4146949431,5.3457076523,-2.903887933,-0.5067021505,-5.5957951128,-2.3178111279,-3.6601733484,-6.7718707483,-5.6504628312,-3.490710761,-4.366542623,-15.7749505733,44.7935536165,-2.1486104541,-19.505253232,14.3931023077,-45.8017175062,-13.8285965837,-2.3055091814,-10.1852766311,30.9610227811,-15.4302823193,-14.0475953541,7.4212333751,-45.1786828806,16.5695749247,-9.2100454081,11.4704280043,-40.7699116469,-13.5746184389,-7.449854905,12.4871876943,-47.9280858028,-10.5031412612,-3.6161132015,5.4819467369,6.4667156155,11.9614059888,-25.3943420712,16.3179115722,-65.8665819865,-17.3052472567,-9.9331690183,3.981659476,-24.4889640264,-23.1081471575,-10.0293180228
biasActivation=0,1,1
[BASIC:ACTIVATION]
"org.encog.engine.network.activation.ActivationSigmoid"
"org.encog.engine.network.activation.ActivationSigmoid"
"org.encog.engine.network.activation.ActivationLinear"
