encog,BasicNetwork,java,3.2.0,1,1433963729306
[BASIC]
[BASIC:PARAMS]
[BASIC:NETWORK]
beginTraining=0
connectionLimit=0
contextTargetOffset=0,0,0
contextTargetSize=0,0,0
endTraining=2
hasContext=f
inputCount=9
layerCounts=7,4,10
layerFeedCounts=7,3,9
layerContextCount=0,0,0
layerIndex=0,7,11
output=0.4532119859,0.1921186385,0.5428108326,0.6192550029,0.494553008,0.5358313654,0.4215187842,0,0.0097335992,0.3315058854,1,0,1,1,0,0,0,1,0,1,1
outputCount=7
weightIndex=0,28,58
weights=-1.637392528,0.0140601667,-0.6133335743,0.015485625,0.2072417854,8.0867182646,-3.0726198355,-0.4964234434,-1.8216989415,-0.2577283313,-0.4251192519,0.3151018048,-2.1704764304,-0.6645842139,-0.7284868438,0.7343537677,4.0434730663,-0.0542800149,-0.2081563502,0.047744565,-1.1100209677,0.8319294421,2.6826788836,-0.7538499343,-56.5324647178,0.6712723774,0.3796759584,-0.448940445,-2.4819656965,2.170335038,-66.3352921589,-64.1127019879,-3.5252093339,0.6611881428,-0.3304224524,-0.7798219257,33.4266428241,-1.1508081075,0.1371556428,-0.2859621834,-0.3667842834,-2.2174305388,26.7779956385,0.9231194919,0.2624112345,0.4982337578,-3.5080957213,-0.7239593065,-1.770389104,1.2864156478,-0.3019480024,-28.9290109552,-27.5282628316,-0.2482875276,-0.0928702963,0.9169006035,-2.6301576987,1.0371783203
biasActivation=0,1,1
[BASIC:ACTIVATION]
"org.encog.engine.network.activation.ActivationSigmoid"
"org.encog.engine.network.activation.ActivationSigmoid"
"org.encog.engine.network.activation.ActivationLinear"
