encog,BasicNetwork,java,3.2.0,1,1431035128682
[BASIC]
[BASIC:PARAMS]
[BASIC:NETWORK]
beginTraining=0
connectionLimit=0
contextTargetOffset=0,0,0
contextTargetSize=0,0,0
endTraining=2
hasContext=f
inputCount=9
layerCounts=8,4,10
layerFeedCounts=8,3,9
layerContextCount=0,0,0
layerIndex=0,8,12
output=0.5000016293,0.4999944808,0.5000199777,0.4999434158,0.4999630433,0.5000020966,0.5000255517,0.4999689684,0.2863893663,0.1040153921,0.1013473571,1,0,0,1,0,1,0,0,0,1,1
outputCount=8
weightIndex=0,32,62
weights=0.9861404656,0.9372730536,0.0279096124,-0.3827330156,-0.1687637445,0.5105040494,-0.3506434215,0.0307465701,0.5086654591,0.2043400529,-0.1242292737,-0.15426067,-0.3289466289,0.9667108635,0.1701286291,-0.0238144166,-0.9737960665,0.2438403284,-0.2052836089,0.2741788155,0.1791146635,0.3335771697,-0.1230288636,-0.0735166587,-0.2281851414,-0.0658451121,-0.6034082792,0.1334547444,-0.7682911346,-0.7701638992,0.5871994629,0.2405040711,0.0451697077,0.6120053879,-0.3037104584,-0.5662838423,0.3498690833,0.6611881428,-0.0948866217,-0.7798219257,0.0007227331,-0.959866535,-0.5529567675,-0.1250229665,-0.2002296839,-0.4290310025,-0.3546982007,0.9231194919,0.1581357199,0.4982337578,-0.0016963099,-1.5967601501,-1.5807321076,-0.670480941,-0.200313943,-0.9113269072,-1.3828169423,-0.2482875276,-0.645284708,0.9169006035,-0.0019808189,-0.5972310783
biasActivation=0,1,1
[BASIC:ACTIVATION]
"org.encog.engine.network.activation.ActivationSigmoid"
"org.encog.engine.network.activation.ActivationSigmoid"
"org.encog.engine.network.activation.ActivationLinear"
