encog,BasicNetwork,java,3.2.0,1,1432492594594
[BASIC]
[BASIC:PARAMS]
[BASIC:NETWORK]
beginTraining=0
connectionLimit=0
contextTargetOffset=0,0,0
contextTargetSize=0,0,0
endTraining=2
hasContext=f
inputCount=9
layerCounts=6,4,10
layerFeedCounts=6,3,9
layerContextCount=0,0,0
layerIndex=0,6,10
output=0.5011295235,0,0.4999156112,1,0.500055945,0,0.9999999838,0,0,1,0,0,1,1,0,0,1,0,0,1
outputCount=6
weightIndex=0,24,54
weights=0.0045680666,-27.5017978459,48.7362212549,-0.0000499647,-4565.7197902025,4502.7157956551,0.1071334866,15.1254348994,-0.0003774366,-27.633636851,-95.7644306189,0.0000398816,68.9721830673,21.2541585817,-420.4998628295,-3.2904495508,0.0002119769,-16.1757043527,104.0924670789,0.0000118031,-8.886618347,-13.1709628327,-12.7291168752,-15.5877112162,22.8111008987,21.7931833584,20.9338789857,-0.1427123505,21.9638087971,0.6611881428,-4.2686319716,-0.7798219257,-88.0052042975,1.4162485022,0.505772252,1.5576925188,0.9240483188,0.2643886574,13.2475373753,0.9231194919,-31.2459487644,0.4982337578,5.6048164796,-2.2336659248,-2.0020702299,-0.6005721967,-0.9553696485,-0.9329193307,11.486719017,-0.2482875276,-34.8300220635,0.9169006035,-38.9155901617,3.4113492552
biasActivation=0,1,1
[BASIC:ACTIVATION]
"org.encog.engine.network.activation.ActivationSigmoid"
"org.encog.engine.network.activation.ActivationSigmoid"
"org.encog.engine.network.activation.ActivationLinear"
